#ifndef MODEL_H
#define MODEL_H

// Normalization params (min/max per feature: roll, pitch)
static constexpr float NORM_MIN[] = {-186.4700f, -42.5400f};
static constexpr float NORM_MAX[] = {182.7900f, 14.4700f};
static constexpr int MODEL_WINDOW_SIZE = 50;

static const float WEIGHT0[] = {
  -0.429497f, -1.081888f, 0.142878f, 0.614045f, 1.012826f, 0.108068f, -0.197885f, 0.004681f, 
  -0.905804f, 0.895357f, 0.485917f, -0.182016f, -0.131708f, 0.827159f, 0.944690f, -0.312450f, 
  0.070049f, 0.270276f, 0.288411f, 0.220682f, -0.128280f, -0.069962f, -0.143791f, 0.125104f, 
  0.095188f, 0.140155f, 0.120540f, -0.175452f, -0.044443f, -0.183247f, -0.185254f, -0.135934f, 
  0.157218f, -1.208014f, -0.407286f, 0.275884f, 0.637745f, 0.000940f, 0.165335f, 0.117446f, 
  -0.346992f, 0.713667f, 0.678834f, -0.181038f, 0.120350f, 0.686859f, 0.522790f, -0.149807f, 
  0.172888f, 0.137952f, 0.001745f, 0.061210f, -0.090538f, 0.162309f, -0.045787f, 0.035492f, 
  0.226398f, 0.090703f, -0.143344f, 0.050893f, 0.044971f, 0.024256f, -0.128072f, 0.232590f, 
  0.048170f, -0.865535f, -0.217620f, -0.108862f, 0.854005f, -0.173611f, 0.190603f, 0.031673f, 
  -0.426036f, 0.663713f, 0.181047f, 0.190581f, -0.047619f, 0.383311f, 0.764119f, -0.101092f, 
  0.232555f, 0.056411f, 0.048029f, -0.050875f, -0.146657f, -0.211437f, 0.113383f, -0.109490f, 
  0.191068f, 0.033442f, 0.184380f, 0.128500f, -0.168622f, 0.014334f, 0.252082f, -0.117939f, 
  0.070366f, -0.840285f, -0.183712f, -0.275419f, 0.402251f, -0.030260f, -0.149235f, -0.123401f, 
  -0.116685f, 0.607204f, 0.227673f, 0.173105f, -0.086695f, 0.455524f, 0.409088f, -0.041463f, 
  -0.007714f, -0.028639f, -0.073642f, -0.050538f, -0.092884f, 0.039168f, -0.231891f, 0.010967f, 
  0.132303f, 0.178979f, -0.122947f, -0.059568f, -0.200064f, 0.075800f, -0.135247f, -0.032880f, 
  0.423764f, -0.595948f, -0.186943f, -0.155891f, 0.588909f, 0.042698f, -0.195737f, 0.147908f, 
  -0.207761f, 0.404694f, -0.131807f, 0.083686f, -0.102919f, 0.241559f, 0.464682f, 0.347852f, 
  -0.135652f, -0.000306f, 0.159571f, -0.132707f, -0.113416f, -0.229896f, -0.202269f, 0.156554f, 
  -0.182790f, 0.108451f, 0.177913f, 0.031887f, 0.171230f, 0.104252f, 0.165561f, 0.144030f, 
  0.212557f, -0.685888f, -0.177047f, -0.248880f, 0.462697f, -0.061248f, -0.025806f, -0.226851f, 
  -0.204928f, 0.177659f, -0.190755f, 0.075031f, 0.073754f, 0.357539f, 0.073999f, 0.294029f, 
  0.129252f, 0.156302f, -0.229612f, -0.116883f, 0.263891f, 0.083214f, 0.031119f, -0.019711f, 
  0.137104f, 0.285538f, -0.126382f, 0.190555f, -0.147847f, 0.031783f, 0.283277f, 0.213176f, 
  0.294351f, -0.508627f, -0.208834f, -0.204882f, 0.057221f, -0.016200f, -0.028079f, -0.211862f, 
  0.180865f, 0.297909f, -0.011567f, -0.138274f, 0.108550f, 0.021288f, -0.114835f, 0.325203f, 
  0.291134f, -0.015185f, -0.212518f, 0.211915f, 0.189101f, 0.190501f, -0.229219f, 0.125074f, 
  0.190480f, -0.120800f, -0.159441f, -0.117358f, -0.214596f, -0.239976f, 0.134471f, -0.065872f, 
  0.168352f, -0.473625f, -0.310863f, -0.109541f, -0.071166f, -0.062008f, 0.099914f, -0.087478f, 
  0.079377f, 0.083318f, 0.080024f, -0.097090f, 0.052372f, 0.136822f, -0.077053f, 0.099151f, 
  -0.046445f, 0.001448f, -0.084285f, -0.083430f, 0.324772f, -0.064386f, -0.072632f, -0.221332f, 
  -0.159110f, 0.224998f, 0.189464f, 0.069460f, 0.203168f, 0.131753f, 0.230278f, 0.212131f, 
  0.011606f, -0.529426f, -0.061547f, 0.096567f, 0.004684f, 0.126970f, -0.186660f, -0.010474f, 
  -0.075163f, 0.117812f, 0.144817f, 0.114962f, 0.103811f, -0.096906f, -0.004994f, 0.360401f, 
  0.240056f, 0.312751f, -0.156505f, -0.006803f, 0.115872f, 0.094872f, 0.031197f, -0.029576f, 
  -0.051325f, 0.249868f, 0.069907f, -0.068423f, -0.179782f, 0.117067f, -0.109350f, 0.086159f, 
  -0.022234f, -0.331154f, -0.041321f, -0.213201f, 0.166261f, -0.184477f, 0.114666f, -0.170796f, 
  0.124399f, -0.045125f, 0.178888f, -0.162282f, -0.091033f, 0.115265f, 0.169381f, 0.281635f, 
  -0.097278f, 0.151097f, -0.218799f, -0.226481f, 0.203707f, 0.059134f, -0.032122f, 0.180594f, 
  0.224690f, 0.201745f, -0.086267f, 0.168370f, -0.018642f, -0.117236f, -0.074938f, 0.264708f, 
  0.313830f, -0.474187f, -0.010113f, -0.197215f, 0.004794f, 0.160298f, -0.047919f, 0.057739f, 
  0.139393f, -0.198999f, -0.078097f, -0.099456f, -0.054803f, -0.066777f, -0.185568f, 0.194883f, 
  -0.096663f, 0.032698f, 0.017141f, -0.189828f, 0.208418f, 0.143096f, 0.147957f, -0.169175f, 
  0.037087f, -0.056508f, -0.200912f, -0.143506f, 0.051364f, -0.232234f, -0.021380f, 0.107824f, 
  0.320826f, -0.334740f, 0.258337f, 0.101274f, 0.065253f, 0.196944f, 0.098715f, 0.169457f, 
  0.068553f, 0.043520f, 0.046191f, -0.076922f, 0.206162f, -0.014352f, -0.125742f, -0.094928f, 
  0.007391f, 0.300626f, 0.049009f, -0.162817f, 0.151881f, 0.011402f, -0.107312f, 0.141455f, 
  0.211549f, 0.279573f, -0.241706f, -0.043181f, -0.103092f, 0.168109f, 0.130561f, 0.086675f, 
  0.279223f, -0.278490f, -0.077143f, 0.007964f, 0.176651f, 0.042267f, -0.157813f, -0.075950f, 
  0.312822f, 0.206790f, -0.001817f, 0.063142f, -0.129463f, 0.294482f, 0.186612f, 0.170761f, 
  -0.019183f, 0.137274f, -0.276384f, 0.147205f, 0.042730f, 0.043758f, 0.169080f, -0.184651f, 
  -0.050241f, -0.072148f, -0.043695f, 0.086545f, -0.150658f, -0.170852f, 0.190091f, -0.021942f, 
  0.072613f, -0.014982f, 0.093323f, 0.008738f, -0.169477f, 0.074439f, -0.000779f, 0.050252f, 
  0.202296f, -0.009411f, 0.231913f, 0.136584f, -0.018562f, 0.231625f, 0.014596f, 0.063702f, 
  0.212086f, 0.246122f, -0.053818f, 0.061854f, -0.036486f, -0.107250f, 0.011689f, 0.077615f, 
  0.258348f, 0.113082f, 0.023891f, -0.105570f, -0.154818f, -0.101636f, 0.011367f, -0.017651f, 
  0.103788f, -0.160232f, 0.243980f, 0.024396f, 0.017131f, 0.002288f, -0.095900f, 0.024514f, 
  -0.083034f, 0.021677f, -0.027971f, 0.021155f, 0.113826f, 0.027541f, 0.067196f, 0.321483f, 
  0.150031f, 0.292932f, -0.132277f, -0.032131f, 0.207642f, -0.175244f, -0.145985f, -0.203560f, 
  0.223873f, 0.070551f, 0.127529f, -0.060992f, 0.042961f, 0.083869f, 0.120054f, 0.280888f, 
  0.048808f, -0.235882f, -0.041998f, 0.168254f, -0.012369f, -0.133603f, -0.003236f, -0.172875f, 
  -0.025048f, -0.163806f, 0.169334f, -0.163973f, -0.120921f, 0.000759f, -0.179167f, 0.287793f, 
  0.284051f, -0.064472f, 0.049781f, -0.265191f, 0.176865f, 0.117846f, 0.206768f, 0.116988f, 
  -0.010592f, 0.093671f, -0.254603f, -0.007944f, 0.101453f, 0.113237f, 0.261521f, 0.100630f, 
  0.199733f, -0.257137f, -0.116618f, -0.054242f, 0.240351f, -0.031056f, -0.170252f, -0.068943f, 
  0.183891f, -0.118961f, -0.126977f, -0.061213f, -0.014778f, -0.043349f, 0.201572f, 0.171913f, 
  0.195595f, -0.004492f, -0.170493f, 0.026480f, 0.122037f, -0.125578f, -0.220941f, -0.181580f, 
  0.042297f, 0.224495f, -0.127718f, 0.011512f, -0.208653f, 0.091317f, -0.151663f, 0.135074f, 
  0.367479f, -0.040003f, 0.124128f, 0.081975f, 0.187559f, -0.186451f, -0.215206f, 0.080730f, 
  -0.002487f, 0.138787f, 0.247276f, -0.103980f, 0.163650f, -0.061828f, 0.228670f, 0.185193f, 
  0.231739f, 0.072301f, -0.246140f, -0.144118f, 0.092474f, 0.058444f, 0.083180f, -0.122687f, 
  0.032506f, 0.181999f, 0.053216f, 0.018349f, 0.028489f, 0.063237f, 0.217999f, 0.112113f, 
  0.166179f, -0.265387f, -0.183644f, 0.159198f, -0.043817f, 0.003782f, 0.131813f, 0.156198f, 
  -0.065281f, -0.093054f, 0.071777f, 0.179015f, -0.228945f, 0.057482f, 0.145469f, 0.085104f, 
  -0.013858f, 0.117523f, 0.003516f, 0.146089f, -0.168938f, -0.149861f, 0.167962f, -0.111234f, 
  -0.058622f, -0.045843f, 0.105574f, -0.104184f, 0.068734f, 0.031853f, 0.030304f, 0.137249f, 
  0.201381f, -0.223616f, -0.261527f, -0.188227f, -0.124106f, 0.033485f, 0.050739f, 0.154743f, 
  0.084262f, 0.092606f, 0.243886f, -0.173009f, 0.028766f, 0.152928f, 0.109949f, 0.173155f, 
  -0.018301f, 0.100152f, -0.025336f, -0.000897f, 0.157202f, 0.164768f, -0.149001f, -0.054704f, 
  0.213598f, 0.184068f, 0.016115f, 0.128244f, 0.067501f, 0.042329f, 0.061220f, -0.068524f, 
  0.049445f, -0.005539f, 0.002734f, -0.179737f, -0.076874f, -0.021110f, 0.102841f, -0.110660f, 
  0.361185f, -0.125912f, -0.082601f, -0.163235f, 0.004569f, 0.184200f, 0.061562f, 0.388635f, 
  0.200797f, 0.146633f, -0.003789f, 0.053004f, 0.009358f, 0.046719f, -0.184201f, -0.175369f, 
  -0.075400f, -0.001053f, -0.119125f, 0.086621f, -0.084659f, 0.121399f, 0.043927f, -0.061698f, 
  0.267210f, -0.252551f, -0.192602f, 0.102068f, -0.037559f, -0.172028f, -0.236470f, -0.127263f, 
  0.130064f, 0.202385f, 0.068606f, -0.050692f, -0.127802f, 0.102859f, -0.047743f, 0.064161f, 
  -0.088571f, 0.082394f, -0.055582f, -0.164952f, -0.018336f, -0.050931f, -0.007244f, -0.237358f, 
  -0.109975f, -0.091100f, 0.075941f, 0.220139f, -0.076261f, -0.231194f, 0.147549f, 0.267138f, 
  0.390570f, -0.132046f, -0.002126f, 0.128099f, 0.218600f, -0.089535f, -0.187383f, -0.070577f, 
  0.112686f, 0.123425f, 0.189301f, -0.059246f, 0.104604f, 0.204081f, 0.161402f, -0.048472f, 
  0.194211f, 0.374138f, -0.316761f, 0.147874f, -0.085642f, -0.225711f, -0.069353f, 0.067785f, 
  0.063091f, 0.214461f, -0.028526f, -0.143661f, -0.149815f, 0.182182f, 0.032494f, 0.042008f, 
  0.195932f, -0.174422f, 0.184142f, 0.198782f, 0.006955f, -0.234133f, 0.069144f, -0.137867f, 
  0.226287f, 0.222001f, 0.036833f, 0.145324f, 0.011276f, 0.344892f, 0.050967f, 0.007480f, 
  0.010563f, 0.058864f, -0.190998f, -0.274044f, -0.182045f, 0.097540f, 0.036551f, -0.208988f, 
  -0.074396f, 0.019413f, -0.237471f, 0.224895f, -0.055658f, -0.162145f, 0.027183f, 0.120966f, 
  0.072616f, -0.038536f, 0.041288f, 0.033046f, 0.148567f, -0.108470f, -0.192471f, -0.159414f, 
  0.301269f, 0.065109f, -0.031994f, 0.066169f, -0.007817f, -0.034828f, 0.141583f, 0.255364f, 
  0.070204f, 0.330032f, -0.233780f, 0.099150f, 0.246499f, -0.147904f, -0.135282f, 0.036321f, 
  -0.128835f, -0.211223f, 0.182196f, -0.206847f, -0.138914f, 0.037890f, 0.119601f, 0.031976f, 
  0.295510f, -0.230881f, -0.021460f, 0.252131f, 0.058784f, -0.073132f, 0.040049f, 0.015764f, 
  0.003726f, 0.136834f, 0.223496f, -0.025799f, 0.024886f, 0.210847f, 0.082256f, 0.209548f, 
  0.259161f, 0.250673f, 0.051864f, -0.223136f, -0.157158f, 0.015075f, 0.205948f, -0.045571f, 
  0.100719f, -0.034656f, 0.124450f, -0.214260f, -0.136266f, 0.024902f, 0.110529f, -0.007568f, 
  -0.037191f, -0.183446f, 0.262022f, 0.004221f, -0.103900f, -0.201668f, -0.112635f, -0.082280f, 
  -0.090097f, 0.104293f, 0.170289f, 0.155763f, -0.106131f, 0.176422f, 0.016619f, 0.372536f, 
  0.123384f, 0.226733f, -0.318370f, -0.141613f, 0.001422f, 0.133490f, -0.153724f, 0.176350f, 
  0.242722f, -0.159240f, 0.140738f, -0.030934f, -0.145954f, 0.063126f, -0.035212f, 0.197838f, 
  0.111331f, -0.200397f, 0.060879f, 0.228347f, 0.092331f, -0.166434f, 0.055316f, 0.134367f, 
  -0.005695f, 0.058376f, 0.448502f, -0.038385f, -0.003300f, 0.161202f, 0.103919f, 0.165959f, 
  0.016766f, 0.224016f, 0.035807f, -0.107590f, -0.059514f, 0.052674f, 0.002620f, -0.074851f, 
  0.124906f, 0.190716f, -0.063836f, -0.202241f, 0.000257f, 0.126293f, -0.058143f, 0.051475f, 
  0.184272f, -0.208290f, 0.146974f, 0.457145f, -0.054151f, -0.095758f, -0.111840f, 0.115680f, 
  0.012761f, -0.080867f, 0.135894f, -0.159077f, 0.092221f, 0.263893f, 0.169384f, 0.274490f, 
  0.164952f, 0.150274f, 0.026655f, -0.211237f, -0.045880f, -0.116986f, 0.142411f, 0.107024f, 
  -0.015996f, 0.003556f, -0.222257f, 0.178000f, 0.170271f, -0.079022f, 0.084839f, 0.004406f, 
  0.039604f, 0.090812f, 0.348804f, 0.263885f, 0.043781f, -0.084768f, -0.073963f, 0.081535f, 
  0.191330f, 0.106891f, 0.033662f, -0.138312f, -0.143105f, 0.015179f, 0.151022f, 0.300653f, 
  0.217319f, 0.094627f, 0.127342f, 0.096051f, 0.034223f, 0.004168f, -0.014404f, -0.165723f, 
  -0.045201f, -0.198398f, 0.075107f, -0.035874f, -0.025922f, -0.142630f, -0.028643f, 0.203347f, 
  0.174025f, -0.220005f, 0.049540f, 0.346236f, 0.060240f, -0.153148f, -0.137161f, 0.108150f, 
  0.013035f, -0.079893f, 0.358659f, 0.191941f, -0.170592f, -0.046699f, -0.150331f, 0.441714f, 
  0.111019f, 0.075917f, -0.055849f, -0.219210f, -0.125970f, 0.082313f, 0.039658f, -0.044844f, 
  -0.058242f, 0.212708f, 0.212478f, 0.057179f, 0.167162f, -0.158583f, 0.146883f, -0.123330f, 
  -0.095984f, -0.327579f, 0.405271f, 0.310396f, 0.249807f, -0.182896f, 0.098021f, -0.125699f, 
  0.066430f, -0.129959f, 0.164420f, -0.106716f, 0.174211f, -0.128481f, 0.089284f, 0.402052f, 
  0.038154f, 0.178938f, 0.077667f, 0.187801f, 0.100616f, 0.136186f, 0.146480f, 0.084730f, 
  0.029353f, -0.153220f, -0.057910f, -0.059404f, 0.137113f, -0.025866f, 0.207223f, -0.153947f, 
  0.081900f, -0.335667f, 0.428171f, 0.509688f, -0.146022f, -0.230199f, 0.116362f, 0.215610f, 
  0.048480f, -0.002930f, 0.441297f, -0.018580f, -0.147590f, -0.178209f, 0.079188f, 0.438542f, 
  0.080346f, 0.071559f, 0.193445f, 0.082802f, 0.090991f, 0.112617f, 0.104313f, -0.172540f, 
  0.190228f, 0.157022f, -0.176988f, -0.042742f, -0.027924f, -0.164163f, -0.053479f, -0.170058f, 
  0.116938f, -0.318762f, 0.337311f, 0.284551f, 0.150383f, -0.011831f, 0.095081f, 0.136799f, 
  0.292989f, 0.278722f, 0.272615f, -0.163316f, -0.165075f, 0.089449f, -0.069534f, 0.481832f, 
  0.222456f, 0.290698f, 0.086042f, 0.187036f, -0.065563f, -0.146046f, 0.110284f, 0.212044f, 
  -0.129006f, -0.117315f, 0.077018f, -0.139014f, -0.092508f, 0.154265f, 0.011621f, 0.058272f, 
  0.161281f, -0.096934f, 0.222821f, 0.405186f, 0.167810f, -0.066285f, 0.095761f, 0.078278f, 
  0.018421f, -0.173442f, 0.262683f, 0.148319f, 0.008888f, -0.197333f, -0.097426f, 0.365953f, 
  0.119866f, -0.071387f, 0.058497f, -0.047339f, 0.091026f, -0.233053f, 0.194023f, -0.238703f, 
  0.051249f, 0.059696f, -0.177398f, -0.150558f, 0.079235f, 0.215365f, -0.116169f, 0.028852f, 
  0.254535f, -0.044870f, 0.412877f, 0.495898f, 0.195942f, -0.022643f, 0.216351f, -0.120773f, 
  0.002302f, -0.211683f, 0.161047f, -0.192530f, -0.005710f, -0.055599f, 0.189575f, 0.183163f, 
  0.050645f, 0.013101f, 0.132905f, 0.155946f, -0.133196f, 0.003943f, -0.163977f, -0.169172f, 
  0.142315f, -0.078934f, -0.059534f, -0.041081f, 0.131134f, -0.029873f, -0.190839f, -0.008810f, 
  0.230515f, -0.135809f, 0.128449f, 0.258412f, 0.110972f, -0.069932f, -0.208575f, -0.211699f, 
  0.366915f, -0.006818f, 0.279154f, 0.044973f, -0.236826f, -0.338484f, -0.164719f, 0.480121f, 
  -0.197498f, 0.022907f, 0.204080f, 0.238036f, -0.136839f, -0.085427f, -0.089446f, 0.037279f, 
  0.002402f, -0.072226f, -0.202208f, -0.126144f, -0.151908f, 0.260236f, 0.042599f, -0.228387f, 
  0.054592f, -0.014351f, 0.484580f, 0.378855f, 0.110817f, 0.060706f, -0.212103f, 0.014114f, 
  0.214709f, -0.117994f, 0.306140f, 0.111578f, 0.197767f, -0.428373f, -0.061252f, 0.406982f, 
  0.126702f, 0.018878f, 0.279469f, -0.071678f, 0.187011f, 0.137820f, 0.089864f, 0.212083f, 
  0.209560f, 0.050662f, 0.162790f, -0.155255f, -0.198998f, 0.144000f, 0.177001f, -0.115994f, 
  0.035249f, -0.202702f, 0.318253f, 0.388100f, -0.132784f, 0.093098f, 0.034046f, -0.147693f, 
  0.197821f, -0.193349f, -0.066086f, -0.070517f, -0.126282f, -0.516456f, -0.065472f, 0.208081f, 
  0.150062f, 0.277358f, 0.077933f, 0.256667f, 0.164694f, 0.057685f, -0.009756f, -0.230716f, 
  0.084259f, -0.077610f, 0.175858f, 0.182760f, -0.062736f, -0.017026f, 0.145596f, 0.177919f, 
  0.072232f, -0.299475f, 0.352948f, 0.276619f, -0.299813f, 0.102691f, -0.171971f, -0.044914f, 
  0.363702f, 0.008661f, 0.162939f, -0.169725f, 0.087239f, -0.376816f, -0.217567f, 0.051427f, 
  0.059545f, 0.090821f, 0.298948f, -0.008676f, -0.179255f, 0.189106f, 0.111931f, -0.028004f, 
  -0.083872f, -0.074047f, 0.137601f, -0.140295f, -0.102011f, 0.011420f, -0.123403f, -0.189263f, 
  0.354425f, -0.034184f, 0.012944f, 0.147499f, -0.070395f, 0.184007f, -0.158754f, -0.150339f, 
  0.139207f, -0.164488f, -0.010105f, -0.170288f, 0.098509f, -0.420963f, -0.088433f, 0.150074f, 
  0.140556f, 0.269952f, 0.188713f, 0.017600f, 0.083350f, -0.097641f, 0.001654f, 0.212192f, 
  -0.164417f, 0.025983f, -0.142146f, 0.172722f, 0.186354f, 0.111973f, -0.107970f, 0.159497f, 
  0.280805f, -0.286456f, 0.332497f, 0.223861f, -0.119470f, -0.164868f, -0.153756f, -0.142648f, 
  0.154092f, 0.049570f, -0.151235f, 0.071379f, -0.013605f, -0.642362f, -0.258056f, 0.153670f, 
  -0.235962f, 0.182713f, 0.348112f, 0.067272f, 0.167503f, 0.124591f, -0.209369f, 0.045461f, 
  -0.098129f, 0.081955f, -0.113556f, -0.166560f, -0.184172f, -0.065497f, -0.216156f, -0.108309f, 
  -0.041762f, -0.312888f, 0.342484f, 0.044926f, 0.111994f, -0.036753f, -0.222346f, -0.110384f, 
  0.320361f, -0.050648f, -0.097337f, 0.092901f, -0.161845f, -0.830876f, -0.246453f, 0.387748f, 
  -0.189703f, 0.285645f, 0.150803f, 0.158256f, 0.050509f, 0.109015f, 0.038709f, -0.063379f, 
  0.008975f, -0.025442f, 0.050467f, 0.166099f, 0.022048f, -0.044130f, -0.015107f, 0.091619f, 
  0.183334f, -0.107674f, 0.412847f, -0.008013f, -0.246177f, -0.093673f, 0.173081f, 0.182325f, 
  -0.057372f, 0.074345f, 0.210944f, -0.165739f, -0.044133f, -0.687102f, 0.067420f, 0.244942f, 
  -0.181673f, -0.079833f, 0.358872f, 0.056319f, 0.060193f, 0.075202f, 0.201074f, 0.149497f, 
  0.232665f, -0.118533f, -0.059772f, -0.220878f, 0.220157f, -0.055319f, 0.024116f, 0.031997f, 
  0.017202f, -0.175913f, 0.363059f, 0.453811f, -0.205738f, -0.041637f, -0.158490f, 0.008465f, 
  0.101988f, -0.164032f, 0.346180f, 0.020001f, 0.098635f, -1.070149f, 0.048841f, 0.051923f, 
  -0.062558f, 0.286789f, 0.027798f, 0.295123f, -0.227154f, 0.112389f, -0.193199f, 0.054660f, 
  0.171112f, -0.123481f, 0.191643f, -0.207853f, -0.072411f, 0.286313f, -0.017826f, -0.161090f, 
  -0.354908f, -0.492005f, 0.356621f, 0.515577f, 0.236370f, -0.130660f, -0.135457f, 0.190360f, 
  -0.279337f, 0.214772f, 0.054334f, 0.210765f, 0.027012f, -0.928274f, 0.092609f, -0.144133f, 
  -0.122227f, -0.090032f, 0.456935f, 0.297850f, -0.108096f, -0.133787f, 0.013249f, 0.186990f, 
  0.056185f, 0.009022f, 0.191529f, -0.140320f, 0.159430f, 0.331206f, 0.079565f, -0.309296f, 
  -0.315211f, -0.598806f, 0.194859f, 0.384185f, 0.156918f, -0.026606f, -0.180291f, 0.057998f, 
  -0.195799f, 0.128790f, 0.428443f, 0.013341f, 0.091655f, -1.058677f, 0.161883f, 0.100557f, 
  -0.182696f, 0.082661f, 0.162368f, -0.007376f, -0.225079f, -0.221696f, 0.041509f, 0.089003f, 
  0.189851f, -0.058601f, 0.015382f, -0.174984f, 0.180090f, -0.018034f, -0.311115f, -0.167079f, 
  -0.428387f, -0.738931f, 0.509040f, 0.824036f, 0.150563f, -0.210903f, -0.097759f, -0.113466f, 
  -0.406008f, 0.042087f, 0.302682f, -0.102109f, 0.192341f, -0.637610f, 0.207754f, 0.118627f, 
  -0.320893f, 0.390374f, 0.308341f, 0.080320f, -0.342465f, 0.089089f, -0.180860f, -0.057267f, 
  0.282018f, -0.253231f, 0.159606f, 0.002484f, -0.110711f, 0.216998f, -0.266041f, -0.068939f, 
  -0.575725f, -0.675086f, 0.716021f, 0.831155f, 0.318156f, 0.008256f, 0.089137f, -0.117248f, 
  -0.575010f, 0.251969f, 0.708845f, 0.105335f, 0.017618f, -0.891997f, 0.429902f, 0.117180f, 
  -0.410875f, 0.310064f, 0.624308f, 0.193287f, 0.032696f, -0.116426f, 0.159910f, 0.058984f, 
  -0.142981f, -0.287595f, 0.166550f, 0.043830f, -0.105655f, 0.230607f, -0.207822f, -0.360546f, 
  -0.774414f, -0.345505f, 0.629079f, 1.124880f, 0.170941f, 0.009897f, 0.011079f, -0.086968f, 
  -0.711575f, 0.474219f, 0.834577f, 0.028915f, 0.024444f, -0.674619f, 0.465172f, 0.168103f, 
  -0.363333f, 0.398907f, 0.585776f, 0.186951f, -0.229991f, -0.063596f, -0.037987f, -0.179106f, 
  0.086222f, -0.213583f, -0.001412f, -0.106325f, 0.003045f, 0.326839f, -0.315068f, -0.079571f, 

};

static const float BIAS0[] = {
  0.290865f, 0.348663f, -0.136409f, -0.402027f, -0.325610f, -0.013064f, -0.010257f, -0.013519f, 
  0.460893f, -0.351241f, -0.434689f, 0.000000f, -0.008148f, -0.096829f, -0.392339f, 0.042242f, 

};

static const float WEIGHT1[] = {
  0.602073f, 0.431260f, -0.043311f, 0.184315f, 0.284245f, 0.366605f, -0.227890f, -0.367170f, 
  0.268417f, -0.892463f, 0.645351f, 0.502665f, 0.277568f, -0.235771f, -0.157302f, 0.473102f, 
  0.038193f, -0.518434f, 0.232637f, 0.278932f, 0.209054f, 0.334303f, 0.191338f, 0.371792f, 
  -0.353236f, -0.164291f, -0.018806f, 0.202952f, 0.191494f, 0.859386f, 0.746211f, 0.338468f, 
  -0.298759f, 0.457016f, -0.363647f, -0.732908f, -0.017883f, 0.483773f, 0.774055f, -0.322002f, 
  0.222635f, -0.371106f, 0.410652f, 0.013088f, 0.441670f, 0.484082f, -0.167123f, -0.334692f, 
  -0.017026f, -0.427415f, -0.455760f, -0.476624f, 0.294563f, -0.415281f, -0.495386f, 0.093909f, 
  -0.352199f, -0.018638f, -0.305099f, 0.388430f, 0.438077f, -0.014605f, 0.217765f, -0.067571f, 
  0.596199f, 0.545803f, 0.389196f, 0.318411f, 0.169760f, -0.034436f, 0.341131f, 0.594802f, 
  -0.185781f, 0.394320f, -0.383194f, -0.713551f, 0.423961f, -0.049890f, 0.471893f, -0.583269f, 
  0.206122f, -0.301742f, -0.363012f, 0.129647f, 0.465297f, 0.263561f, 0.730751f, 0.086196f, 
  -0.089865f, -0.017511f, 0.028996f, -0.122694f, -0.039684f, -0.451361f, 0.480743f, 0.272207f, 
  0.188163f, -0.274827f, 0.082818f, -0.451493f, 0.292652f, -0.063082f, 0.061521f, -0.147608f, 
  0.078142f, -0.658565f, -1.458821f, -1.074028f, -0.053879f, 0.878579f, 0.717542f, -1.226026f, 
  0.056264f, 0.241631f, -0.378097f, -0.305531f, 0.322401f, -0.054563f, 0.682634f, -0.685089f, 
  -0.315783f, 0.304386f, 0.060904f, -0.094954f, 0.697087f, 0.127120f, -0.065305f, 0.157509f, 

};

static const float BIAS1[] = {
  0.309195f, 0.429314f, 0.343715f, 0.333575f, -0.355080f, -0.412011f, -0.383536f, 0.410551f, 

};

static const float WEIGHT2[] = {
  -0.525540f, -2.278097f, -1.270433f, -1.077075f, 0.696423f, 0.337534f, 0.410623f, -1.564264f, 

};

static const float BIAS2[] = {
  -0.338230f, 
};

#endif // MODEL_H
